~o
<STREAMINFO> 3 12 12 2
<VECSIZE> 26<NULLD><MFCC_E_D><DIAGC>
~h "C"
<BEGINHMM>
<NUMSTATES> 5
<STATE> 2
<SWEIGHTS> 3
 1.000000e+000 1.000000e+000 1.000000e+000
<STREAM> 1
<MEAN> 12
 -1.576667e+001 -3.813976e+000 -2.109042e+000 -5.123863e+000 -4.187004e+000 -3.475989e+000 -2.386877e+000 -1.463066e+000 -5.862646e-001 -1.749647e+000 -2.847013e+000 2.072969e-002
<VARIANCE> 12
 3.447813e+001 4.371166e+001 3.733492e+001 3.600668e+001 3.007905e+001 3.339842e+001 2.440499e+001 2.691615e+001 1.589220e+001 1.905450e+001 1.896721e+001 1.454986e+001
<GCONST> 6.130937e+001
<STREAM> 2
<MEAN> 12
 -2.402198e+000 -1.492085e-001 -9.807246e-001 -2.736060e-001 1.337391e+000 4.789523e-001 7.104309e-001 3.500372e-002 3.374710e-001 1.073130e-002 5.152760e-001 6.323092e-002
<VARIANCE> 12
 6.362935e+000 5.371619e+000 4.870039e+000 6.024647e+000 5.612151e+000 4.202811e+000 4.803768e+000 3.954260e+000 3.351882e+000 2.133433e+000 2.350674e+000 1.692420e+000
<GCONST> 3.841811e+001
<STREAM> 3
<MEAN> 2
 3.313904e-001 -2.704363e-002
<VARIANCE> 2
 6.628512e-002 5.000000e-002
<GCONST> -2.033768e+000
<STATE> 3
<SWEIGHTS> 3
 1.000000e+000 1.000000e+000 1.000000e+000
<STREAM> 1
<MEAN> 12
 -2.227613e+001 -3.950152e+000 -6.172277e+000 -8.906720e+000 -2.507152e+000 -5.565838e+000 -7.200438e-002 -1.208663e+000 -3.570763e-001 -1.465770e+000 -2.075614e+000 1.215442e-001
<VARIANCE> 12
 3.499504e+001 2.501684e+001 3.138775e+001 3.058602e+001 3.286371e+001 3.358180e+001 2.014246e+001 1.762730e+001 1.676247e+001 1.479929e+001 1.175129e+001 1.055579e+001
<GCONST> 5.890924e+001
<STREAM> 2
<MEAN> 12
 1.183524e-001 -3.862394e-001 -1.781589e-001 -2.589540e-001 -2.142407e-001 -6.769348e-002 6.692988e-002 5.252336e-002 1.445914e-001 -1.652293e-002 -8.405639e-002 8.478837e-003
<VARIANCE> 12
 2.919404e+000 1.359600e+000 1.832621e+000 2.273438e+000 1.514252e+000 1.760012e+000 1.737396e+000 1.480317e+000 1.469872e+000 1.912671e+000 1.521937e+000 1.113329e+000
<GCONST> 2.834603e+001
<STREAM> 3
<MEAN> 2
 4.720386e-001 5.830936e-003
<VARIANCE> 2
 6.338201e-002 5.000000e-002
<GCONST> -2.078553e+000
<STATE> 4
<SWEIGHTS> 3
 1.000000e+000 1.000000e+000 1.000000e+000
<STREAM> 1
<MEAN> 12
 -1.164529e+001 -7.445246e+000 -2.734693e+000 -6.471862e+000 -7.396755e+000 -4.659124e+000 -2.860535e+000 4.824320e-001 -1.068922e+000 -1.876259e+000 -3.620649e+000 -2.157155e-002
<VARIANCE> 12
 5.142139e+001 3.739767e+001 5.740554e+001 3.904432e+001 5.751653e+001 4.305370e+001 4.284530e+001 3.554538e+001 3.187049e+001 2.477035e+001 2.051542e+001 1.489236e+001
<GCONST> 6.486730e+001
<STREAM> 2
<MEAN> 12
 2.982494e+000 -6.316561e-001 7.997217e-001 -1.868600e-001 -1.630686e+000 8.985799e-002 -1.703208e+000 4.431306e-001 -5.722246e-001 7.935443e-002 2.116427e-002 -4.991725e-001
<VARIANCE> 12
 5.502793e+000 4.125926e+000 4.962421e+000 4.792061e+000 4.746943e+000 5.825716e+000 5.090936e+000 3.500218e+000 3.233299e+000 2.475693e+000 2.605620e+000 2.147387e+000
<GCONST> 3.834795e+001
<STREAM> 3
<MEAN> 2
 4.709547e-001 5.116110e-002
<VARIANCE> 2
 5.070389e-002 5.000000e-002
<GCONST> -2.301731e+000
<TRANSP> 5
 0.000000e+000 1.000000e+000 0.000000e+000 0.000000e+000 0.000000e+000
 0.000000e+000 4.401248e-001 5.598752e-001 0.000000e+000 0.000000e+000
 0.000000e+000 0.000000e+000 6.919214e-001 3.080786e-001 0.000000e+000
 0.000000e+000 0.000000e+000 0.000000e+000 5.668635e-001 4.331365e-001
 0.000000e+000 0.000000e+000 0.000000e+000 0.000000e+000 0.000000e+000
<ENDHMM>
