~o
<STREAMINFO> 3 12 12 2
<VECSIZE> 26<NULLD><MFCC_E_D><DIAGC>
~h "L"
<BEGINHMM>
<NUMSTATES> 5
<STATE> 2
<SWEIGHTS> 3
 1.000000e+000 1.000000e+000 1.000000e+000
<STREAM> 1
<MEAN> 12
 2.673703e+000 -3.034050e+000 -9.772315e+000 -1.815533e+001 -1.285909e+001 5.267424e+000 -7.244661e+000 -2.130375e+000 -5.271160e+000 -2.086096e-001 -1.276329e-001 -1.620047e+000
<VARIANCE> 12
 9.058890e+000 3.992077e+001 4.692184e+001 5.782771e+001 3.838462e+001 6.260785e+001 3.271965e+001 2.278722e+001 3.516190e+001 2.804039e+001 2.082467e+001 1.452831e+001
<GCONST> 6.285569e+001
<STREAM> 2
<MEAN> 12
 6.372376e-001 -3.924809e-001 -3.730558e-001 -8.219692e-001 -1.872613e-001 6.576474e-001 -4.837642e-001 2.808485e-001 6.155222e-002 -2.876752e-001 2.885831e-001 3.149347e-002
<VARIANCE> 12
 1.312332e+000 2.370585e+000 2.596708e+000 2.193359e+000 2.964446e+000 2.841626e+000 2.284078e+000 2.035982e+000 2.791579e+000 2.361220e+000 1.855579e+000 1.015280e+000
<GCONST> 3.111630e+001
<STREAM> 3
<MEAN> 2
 7.744786e-001 2.431441e-002
<VARIANCE> 2
 5.000000e-002 5.000000e-002
<GCONST> -2.315711e+000
<STATE> 3
<SWEIGHTS> 3
 1.000000e+000 1.000000e+000 1.000000e+000
<STREAM> 1
<MEAN> 12
 3.090298e+000 -8.779387e+000 -1.080480e+001 -1.201198e+001 -1.101240e+001 1.464520e+000 -1.280633e+001 3.474853e+000 -1.088748e+000 -2.099025e+000 -5.308701e-001 -8.925909e-001
<VARIANCE> 12
 7.850718e+000 2.988537e+001 7.149285e+001 8.146127e+001 3.668546e+001 1.421279e+002 3.713034e+001 4.361431e+001 3.884009e+001 3.711929e+001 1.695146e+001 1.498796e+001
<GCONST> 6.494234e+001
<STREAM> 2
<MEAN> 12
 -1.733961e-001 -8.423360e-002 4.524363e-002 3.575414e-001 -3.577445e-001 3.428509e-002 2.462578e-001 -2.631898e-001 5.600128e-004 5.160660e-001 3.766638e-003 -3.311394e-001
<VARIANCE> 12
 4.772420e-001 1.654396e+000 1.457485e+000 2.184755e+000 3.143875e+000 2.633868e+000 2.035017e+000 2.149574e+000 1.789540e+000 2.267923e+000 1.442475e+000 1.412933e+000
<GCONST> 2.867898e+001
<STREAM> 3
<MEAN> 2
 8.076901e-001 -1.501954e-003
<VARIANCE> 2
 5.000000e-002 5.000000e-002
<GCONST> -2.315711e+000
<STATE> 4
<SWEIGHTS> 3
 1.000000e+000 1.000000e+000 1.000000e+000
<STREAM> 1
<MEAN> 12
 -1.971011e-001 -6.152614e+000 -6.838494e+000 -1.111964e+001 -1.073267e+001 9.240977e-002 -9.474216e+000 -5.861818e-001 -2.516220e+000 1.853011e+000 -1.002729e+000 -2.806556e+000
<VARIANCE> 12
 1.911533e+001 4.202317e+001 8.671908e+001 6.073497e+001 7.885983e+001 7.457326e+001 4.611881e+001 5.375880e+001 4.570835e+001 4.054319e+001 3.232824e+001 2.024352e+001
<GCONST> 6.781605e+001
<STREAM> 2
<MEAN> 12
 -1.723364e+000 5.252948e-001 7.938947e-001 1.429716e+000 1.173249e+000 -1.439087e+000 9.627994e-001 -4.965466e-001 4.615309e-001 3.432964e-001 -3.610626e-001 -5.145539e-002
<VARIANCE> 12
 3.940849e+000 5.067660e+000 1.811592e+000 4.482215e+000 6.248155e+000 7.554229e+000 4.462232e+000 3.214241e+000 3.616663e+000 2.320130e+000 3.216961e+000 3.710284e+000
<GCONST> 3.826748e+001
<STREAM> 3
<MEAN> 2
 7.117271e-001 -4.326768e-002
<VARIANCE> 2
 5.000000e-002 5.000000e-002
<GCONST> -2.315711e+000
<TRANSP> 5
 0.000000e+000 1.000000e+000 0.000000e+000 0.000000e+000 0.000000e+000
 0.000000e+000 7.089996e-001 2.910004e-001 0.000000e+000 0.000000e+000
 0.000000e+000 0.000000e+000 6.415486e-001 3.584514e-001 0.000000e+000
 0.000000e+000 0.000000e+000 0.000000e+000 3.452211e-001 6.547790e-001
 0.000000e+000 0.000000e+000 0.000000e+000 0.000000e+000 0.000000e+000
<ENDHMM>
