~o
<STREAMINFO> 3 12 12 2
<VECSIZE> 26<NULLD><MFCC_E_D><DIAGC>
~h "N"
<BEGINHMM>
<NUMSTATES> 5
<STATE> 2
<SWEIGHTS> 3
 1.000000e+000 1.000000e+000 1.000000e+000
<STREAM> 1
<MEAN> 12
 -3.140707e+000 -4.410216e+000 2.739334e+000 -2.100135e-001 -1.121953e+001 1.288795e+000 -9.126525e+000 -8.150107e+000 -5.770452e+000 4.442666e-001 -5.391353e+000 8.342771e-002
<VARIANCE> 12
 3.341484e+000 1.284318e+001 1.380703e+001 3.149515e+001 2.508001e+001 1.977904e+001 2.237025e+001 3.645565e+001 2.666433e+001 2.455610e+001 1.320812e+001 1.633309e+001
<GCONST> 5.665760e+001
<STREAM> 2
<MEAN> 12
 -1.721975e-001 7.216995e-001 -6.743518e-002 7.374234e-001 1.354208e-001 5.067734e-001 1.825817e-001 -2.088794e+000 -8.617439e-001 2.588883e-001 2.026593e-001 7.602133e-001
<VARIANCE> 12
 1.411933e+000 1.517120e+000 1.157443e+000 2.544692e+000 2.480435e+000 2.043799e+000 3.451824e+000 2.954360e+000 3.292012e+000 2.740151e+000 2.339477e+000 1.748834e+000
<GCONST> 3.145034e+001
<STREAM> 3
<MEAN> 2
 4.519694e-001 -1.612118e-002
<VARIANCE> 2
 5.000000e-002 5.000000e-002
<GCONST> -2.315711e+000
<STATE> 3
<SWEIGHTS> 3
 1.000000e+000 1.000000e+000 1.000000e+000
<STREAM> 1
<MEAN> 12
 -4.078351e+000 -9.253520e-001 9.956295e-001 -1.970153e+000 -1.110287e+001 1.415079e+000 -6.633493e+000 -9.232775e+000 -5.526314e+000 -8.218920e-001 -6.096320e+000 3.696293e+000
<VARIANCE> 12
 3.784304e+000 3.668030e+001 1.929149e+001 2.346580e+001 2.297204e+001 1.579742e+001 3.393021e+001 4.104877e+001 2.585916e+001 1.516514e+001 1.927495e+001 1.499838e+001
<GCONST> 5.787444e+001
<STREAM> 2
<MEAN> 12
 -7.289371e-001 3.741986e-001 -1.337521e+000 -8.321185e-001 7.317765e-001 -7.326807e-001 1.100940e+000 1.534963e+000 1.233855e+000 -1.087708e+000 1.068218e-001 -1.675285e-001
<VARIANCE> 12
 3.771369e+000 2.872232e+000 2.479682e+000 4.743599e+000 4.290389e+000 2.214211e+000 2.470344e+000 3.310642e+000 1.895550e+000 1.219622e+000 1.225967e+000 1.469764e+000
<GCONST> 3.268164e+001
<STREAM> 3
<MEAN> 2
 4.233355e-001 -2.400925e-003
<VARIANCE> 2
 5.000000e-002 5.000000e-002
<GCONST> -2.315711e+000
<STATE> 4
<SWEIGHTS> 3
 1.000000e+000 1.000000e+000 1.000000e+000
<STREAM> 1
<MEAN> 12
 -4.452947e+000 -3.746141e+000 -4.468665e+000 -4.734353e+000 -8.362720e+000 2.410676e-001 -5.400974e+000 -4.203343e+000 -2.100894e+000 -2.402377e+000 -4.518342e+000 -1.894930e-001
<VARIANCE> 12
 4.143960e+001 3.015429e+001 5.349006e+001 5.671524e+001 2.147638e+001 1.646305e+001 2.004122e+001 3.861646e+001 2.211363e+001 1.654659e+001 2.337670e+001 7.530950e+000
<GCONST> 6.079530e+001
<STREAM> 2
<MEAN> 12
 -4.047421e-001 -1.428600e+000 -2.889703e+000 -2.616327e+000 9.006599e-001 -1.513551e-001 3.112161e-001 2.359597e+000 2.577149e+000 -8.494628e-001 2.174348e-001 -1.304594e+000
<VARIANCE> 12
 6.968304e+000 3.643635e+000 4.540474e+000 3.349977e+000 4.854805e+000 5.498505e+000 3.213011e+000 7.176262e+000 3.756311e+000 1.621732e+000 1.941950e+000 1.586944e+000
<GCONST> 3.736573e+001
<STREAM> 3
<MEAN> 2
 4.743035e-001 4.414159e-002
<VARIANCE> 2
 5.000000e-002 5.000000e-002
<GCONST> -2.315711e+000
<TRANSP> 5
 0.000000e+000 1.000000e+000 0.000000e+000 0.000000e+000 0.000000e+000
 0.000000e+000 6.857096e-001 3.142905e-001 0.000000e+000 0.000000e+000
 0.000000e+000 0.000000e+000 4.127702e-001 5.872298e-001 0.000000e+000
 0.000000e+000 0.000000e+000 0.000000e+000 2.790887e-001 7.209113e-001
 0.000000e+000 0.000000e+000 0.000000e+000 0.000000e+000 0.000000e+000
<ENDHMM>
