~o
<STREAMINFO> 3 12 12 2
<VECSIZE> 26<NULLD><MFCC_E_D><DIAGC>
~h "S"
<BEGINHMM>
<NUMSTATES> 5
<STATE> 2
<SWEIGHTS> 3
 1.000000e+000 1.000000e+000 1.000000e+000
<STREAM> 1
<MEAN> 12
 -1.240981e+001 -7.544432e+000 -1.012884e+001 -9.039945e+000 -1.799263e+000 1.534090e+000 -3.375426e+000 2.291374e+000 2.906226e+000 1.517213e-001 -6.493761e+000 -3.415081e+000
<VARIANCE> 12
 2.929860e+001 3.284301e+001 2.112853e+001 3.935702e+001 2.431166e+001 2.692195e+001 3.125691e+001 2.439707e+001 1.370836e+001 1.359840e+001 2.925498e+001 6.042547e+001
<GCONST> 6.147312e+001
<STREAM> 2
<MEAN> 12
 -1.924894e-001 -1.117253e-001 -4.055589e-001 2.035944e-001 3.305215e-001 9.877396e-001 2.914011e-001 -3.673311e-002 -5.110841e-001 7.416085e-002 7.834002e-002 3.099403e-001
<VARIANCE> 12
 2.770241e+000 2.253475e+000 1.474647e+000 1.738652e+000 1.271159e+000 2.809650e+000 1.601702e+000 3.253849e+000 9.710832e-001 1.569292e+000 2.326901e+000 2.640845e+000
<GCONST> 2.998827e+001
<STREAM> 3
<MEAN> 2
 1.603922e-001 -2.872661e-002
<VARIANCE> 2
 5.000000e-002 5.000000e-002
<GCONST> -2.315711e+000
<STATE> 3
<SWEIGHTS> 3
 1.000000e+000 1.000000e+000 1.000000e+000
<STREAM> 1
<MEAN> 12
 -1.659993e+001 -1.967766e+000 -7.260155e+000 -5.602408e+000 -2.639074e+000 7.471141e-002 -7.469484e-001 1.599732e+000 -1.370651e+000 -5.589760e-001 -1.805879e+000 -3.641776e-001
<VARIANCE> 12
 7.938859e+000 5.245741e+000 1.073209e+001 1.909581e+001 1.618150e+001 1.220605e+001 1.329664e+001 1.683312e+001 1.201215e+001 1.448686e+001 1.811400e+001 1.139201e+001
<GCONST> 5.229184e+001
<STREAM> 2
<MEAN> 12
 9.409514e-002 2.373156e-001 1.755749e-001 1.145864e-001 -3.285995e-001 1.068380e-001 2.935427e-002 -9.423434e-002 -1.198444e-001 -1.175454e-001 3.115080e-002 -1.272010e-001
<VARIANCE> 12
 4.943323e-001 5.079615e-001 8.955410e-001 1.444449e+000 1.213264e+000 1.111751e+000 1.293901e+000 1.944412e+000 1.370286e+000 1.446930e+000 1.845491e+000 1.376658e+000
<GCONST> 2.376877e+001
<STREAM> 3
<MEAN> 2
 -6.862726e-002 -4.864101e-003
<VARIANCE> 2
 5.000000e-002 5.000000e-002
<GCONST> -2.315711e+000
<STATE> 4
<SWEIGHTS> 3
 1.000000e+000 1.000000e+000 1.000000e+000
<STREAM> 1
<MEAN> 12
 -1.271782e+001 -1.219474e+000 -5.606368e-001 -9.714414e+000 -9.074590e+000 2.136450e-001 -2.146158e+000 1.709916e+000 -5.679018e+000 -2.297183e+000 -2.483044e+000 -2.023750e+000
<VARIANCE> 12
 2.453547e+001 2.306944e+001 6.541444e+001 2.070813e+001 3.686691e+001 2.458402e+001 3.207575e+001 5.532505e+001 5.036266e+001 1.658601e+001 1.195557e+001 2.169610e+001
<GCONST> 6.218130e+001
<STREAM> 2
<MEAN> 12
 4.451128e-001 -2.658737e-001 6.714703e-001 -5.218470e-001 -3.272140e-001 5.694487e-002 -5.765600e-001 1.345203e-002 -3.561414e-001 -4.762249e-001 -1.829668e-001 -1.985484e-001
<VARIANCE> 12
 3.879748e+000 2.429194e+000 1.995752e+000 2.046323e+000 2.894244e+000 1.240378e+000 2.322679e+000 2.978443e+000 2.545923e+000 1.302847e+000 1.523787e+000 1.836233e+000
<GCONST> 3.114514e+001
<STREAM> 3
<MEAN> 2
 1.738905e-001 6.123942e-002
<VARIANCE> 2
 7.082148e-002 5.000000e-002
<GCONST> -1.967571e+000
<TRANSP> 5
 0.000000e+000 1.000000e+000 0.000000e+000 0.000000e+000 0.000000e+000
 0.000000e+000 6.014131e-001 3.985869e-001 0.000000e+000 0.000000e+000
 0.000000e+000 0.000000e+000 8.855108e-001 1.144891e-001 0.000000e+000
 0.000000e+000 0.000000e+000 0.000000e+000 6.837401e-001 3.162599e-001
 0.000000e+000 0.000000e+000 0.000000e+000 0.000000e+000 0.000000e+000
<ENDHMM>
