~o
<STREAMINFO> 3 12 12 2
<VECSIZE> 26<NULLD><MFCC_E_D><DIAGC>
~h "V"
<BEGINHMM>
<NUMSTATES> 5
<STATE> 2
<SWEIGHTS> 3
 1.000000e+000 1.000000e+000 1.000000e+000
<STREAM> 1
<MEAN> 12
 5.097504e-001 -9.019837e+000 -4.083569e+000 -1.080621e+001 -1.284341e+001 1.070310e+000 -1.243017e+001 -1.481824e+000 -2.481101e+000 1.580144e+000 -1.508562e+000 -4.954349e+000
<VARIANCE> 12
 1.445211e+001 3.092712e+001 1.161903e+002 3.128610e+001 6.025846e+001 9.149595e+001 5.502967e+001 3.507941e+001 4.597651e+001 3.349200e+001 2.923561e+001 2.751236e+001
<GCONST> 6.656528e+001
<STREAM> 2
<MEAN> 12
 6.300454e-001 -7.592216e-001 -3.958528e-002 -8.548406e-002 -4.101412e-001 2.827389e-001 -6.790082e-001 1.890145e-001 4.087679e-001 2.310151e-001 -4.009650e-001 -4.256604e-001
<VARIANCE> 12
 1.380566e+000 1.685624e+000 2.226920e+000 1.506913e+000 2.945248e+000 2.770652e+000 2.255593e+000 2.135820e+000 2.092671e+000 1.498742e+000 1.947714e+000 1.601150e+000
<GCONST> 3.006182e+001
<STREAM> 3
<MEAN> 2
 7.835498e-001 2.162684e-002
<VARIANCE> 2
 5.000000e-002 5.000000e-002
<GCONST> -2.315711e+000
<STATE> 3
<SWEIGHTS> 3
 1.000000e+000 1.000000e+000 1.000000e+000
<STREAM> 1
<MEAN> 12
 1.467806e+000 -1.545473e+001 -6.256726e+000 -8.685752e+000 -1.465827e+001 1.377212e+000 -8.750031e+000 5.129562e+000 1.010375e+000 -1.153924e+000 -7.240136e+000 -6.594119e+000
<VARIANCE> 12
 9.460626e+000 3.079033e+001 6.785638e+001 1.615684e+001 3.650225e+001 5.932658e+001 2.960633e+001 3.444016e+001 3.499199e+001 1.899058e+001 2.565252e+001 2.041008e+001
<GCONST> 6.209598e+001
<STREAM> 2
<MEAN> 12
 -3.599619e-001 3.625541e-001 8.880255e-001 2.267135e-001 -2.435788e-001 -9.200833e-001 3.912599e-001 4.182338e-001 -3.206550e-001 -1.100319e-001 -1.730627e-001 5.805320e-001
<VARIANCE> 12
 6.009994e-001 1.755364e+000 3.006060e+000 1.596775e+000 2.508083e+000 2.728724e+000 2.229475e+000 2.953114e+000 1.874065e+000 1.353970e+000 1.973642e+000 1.648136e+000
<GCONST> 2.959531e+001
<STREAM> 3
<MEAN> 2
 8.394072e-001 -1.326599e-002
<VARIANCE> 2
 5.000000e-002 5.000000e-002
<GCONST> -2.315711e+000
<STATE> 4
<SWEIGHTS> 3
 1.000000e+000 1.000000e+000 1.000000e+000
<STREAM> 1
<MEAN> 12
 -3.646057e+000 -6.451558e+000 2.918060e+000 -8.290237e+000 -1.411140e+001 -5.392347e+000 -6.730573e+000 6.068662e-001 -4.353446e+000 1.855041e-001 -4.525506e+000 -1.178569e+000
<VARIANCE> 12
 1.856294e+001 3.265120e+001 6.836040e+001 2.958507e+001 6.121196e+001 5.519442e+001 4.664321e+001 4.257284e+001 5.458548e+001 3.687009e+001 2.825818e+001 1.913477e+001
<GCONST> 6.569264e+001
<STREAM> 2
<MEAN> 12
 -1.676135e+000 2.130383e+000 -6.263830e-001 9.520433e-001 2.064920e+000 1.824534e-001 1.398380e+000 -1.336623e+000 -7.220645e-003 -2.266257e-002 7.246108e-002 4.113750e-001
<VARIANCE> 12
 3.331059e+000 2.770394e+000 5.469509e+000 3.871116e+000 6.299451e+000 3.557655e+000 4.500588e+000 3.533598e+000 6.137151e+000 3.671805e+000 2.312405e+000 2.063249e+000
<GCONST> 3.788324e+001
<STREAM> 3
<MEAN> 2
 6.555465e-001 -6.750748e-002
<VARIANCE> 2
 5.000000e-002 5.000000e-002
<GCONST> -2.315711e+000
<TRANSP> 5
 0.000000e+000 1.000000e+000 0.000000e+000 0.000000e+000 0.000000e+000
 0.000000e+000 6.546710e-001 3.453290e-001 0.000000e+000 0.000000e+000
 0.000000e+000 0.000000e+000 7.150583e-001 2.849416e-001 0.000000e+000
 0.000000e+000 0.000000e+000 0.000000e+000 5.769402e-001 4.230598e-001
 0.000000e+000 0.000000e+000 0.000000e+000 0.000000e+000 0.000000e+000
<ENDHMM>
