~o
<STREAMINFO> 3 12 12 2
<VECSIZE> 26<NULLD><MFCC_E_D><DIAGC>
~h "C"
<BEGINHMM>
<NUMSTATES> 5
<STATE> 2
<SWEIGHTS> 3
 1.000000e+000 1.000000e+000 1.000000e+000
<STREAM> 1
<MEAN> 12
 -1.374580e+001 -3.856888e+000 -1.934163e+000 -4.564997e+000 -5.208672e+000 -3.984528e+000 -2.752164e+000 -1.414548e+000 -1.331425e+000 -1.118990e+000 -3.099610e+000 -4.897990e-001
<VARIANCE> 12
 4.292531e+001 5.363494e+001 3.680206e+001 4.616059e+001 3.986169e+001 3.568895e+001 3.250731e+001 3.448684e+001 2.385894e+001 1.944756e+001 2.233796e+001 1.569774e+001
<GCONST> 6.351585e+001
<STREAM> 2
<MEAN> 12
 -2.156712e+000 9.264962e-002 -1.164638e+000 -2.917346e-001 1.595277e+000 5.284989e-001 5.924696e-001 -1.455685e-001 3.356986e-001 -5.370369e-002 1.823404e-001 4.386410e-002
<VARIANCE> 12
 5.847224e+000 5.929195e+000 4.347369e+000 6.323711e+000 6.337527e+000 3.892381e+000 4.813917e+000 4.323959e+000 3.423935e+000 2.346337e+000 2.409363e+000 1.839967e+000
<GCONST> 3.872821e+001
<STREAM> 3
<MEAN> 2
 3.410665e-001 -3.553602e-002
<VARIANCE> 2
 5.648847e-002 5.000000e-002
<GCONST> -2.193697e+000
<STATE> 3
<SWEIGHTS> 3
 1.000000e+000 1.000000e+000 1.000000e+000
<STREAM> 1
<MEAN> 12
 -2.176354e+001 -4.241618e+000 -6.424745e+000 -8.805522e+000 -2.162778e+000 -5.120662e+000 -5.003846e-001 -1.408450e+000 -1.898167e-001 -1.530274e+000 -2.012214e+000 6.247311e-002
<VARIANCE> 12
 3.562902e+001 2.351662e+001 2.901548e+001 3.163294e+001 2.660960e+001 3.550573e+001 2.101210e+001 1.647236e+001 1.714674e+001 1.559949e+001 1.191933e+001 1.093949e+001
<GCONST> 5.876476e+001
<STREAM> 2
<MEAN> 12
 1.090460e-001 -4.200234e-001 -1.576536e-001 -3.340906e-001 -2.255266e-001 -5.116223e-002 -1.260240e-002 6.420390e-002 8.028501e-002 -9.621260e-002 -7.911108e-002 -1.146828e-002
<VARIANCE> 12
 3.232111e+000 1.760608e+000 2.027186e+000 2.596889e+000 1.679091e+000 2.076654e+000 1.965362e+000 1.788241e+000 1.770422e+000 1.857988e+000 1.581117e+000 1.165444e+000
<GCONST> 2.976215e+001
<STREAM> 3
<MEAN> 2
 4.508408e-001 9.893846e-003
<VARIANCE> 2
 6.832604e-002 5.000000e-002
<GCONST> -2.003443e+000
<STATE> 4
<SWEIGHTS> 3
 1.000000e+000 1.000000e+000 1.000000e+000
<STREAM> 1
<MEAN> 12
 -9.242519e+000 -8.380816e+000 -3.503915e+000 -7.109852e+000 -8.492949e+000 -3.926605e+000 -4.400939e+000 8.761069e-001 -1.275398e+000 -1.360884e+000 -3.406704e+000 -8.287119e-001
<VARIANCE> 12
 7.306804e+001 4.039275e+001 6.938618e+001 3.565809e+001 5.885051e+001 5.174423e+001 5.345512e+001 3.468597e+001 3.417045e+001 2.578849e+001 2.357886e+001 1.675788e+001
<GCONST> 6.616523e+001
<STREAM> 2
<MEAN> 12
 2.849910e+000 -7.478594e-001 5.846329e-001 -3.491694e-001 -1.761155e+000 1.738527e-001 -1.638931e+000 3.527295e-001 -4.816335e-001 1.893694e-001 1.137063e-002 -4.558614e-001
<VARIANCE> 12
 4.726901e+000 3.768157e+000 4.797880e+000 4.501033e+000 4.553566e+000 5.292848e+000 5.035255e+000 2.803935e+000 3.137045e+000 2.442149e+000 2.473690e+000 2.111762e+000
<GCONST> 3.752602e+001
<STREAM> 3
<MEAN> 2
 5.474469e-001 5.661149e-002
<VARIANCE> 2
 5.000000e-002 5.000000e-002
<GCONST> -2.315711e+000
<TRANSP> 5
 0.000000e+000 1.000000e+000 0.000000e+000 0.000000e+000 0.000000e+000
 0.000000e+000 5.312764e-001 4.687236e-001 0.000000e+000 0.000000e+000
 0.000000e+000 0.000000e+000 7.374791e-001 2.625210e-001 0.000000e+000
 0.000000e+000 0.000000e+000 0.000000e+000 6.486569e-001 3.513431e-001
 0.000000e+000 0.000000e+000 0.000000e+000 0.000000e+000 0.000000e+000
<ENDHMM>
