~o
<STREAMINFO> 3 12 12 2
<VECSIZE> 26<NULLD><MFCC_E_D><DIAGC>
~h "L"
<BEGINHMM>
<NUMSTATES> 5
<STATE> 2
<SWEIGHTS> 3
 1.000000e+000 1.000000e+000 1.000000e+000
<STREAM> 1
<MEAN> 12
 1.981937e+000 -1.977905e+000 -7.621831e+000 -1.385178e+001 -1.195658e+001 8.702198e-001 -8.771104e+000 -2.782654e+000 -4.542861e+000 -6.403893e-001 -2.144225e+000 -1.131858e+000
<VARIANCE> 12
 1.291564e+001 4.451275e+001 4.557944e+001 7.377130e+001 4.266231e+001 6.362482e+001 3.814076e+001 3.811493e+001 4.568750e+001 4.476860e+001 3.173996e+001 1.585182e+001
<GCONST> 6.556157e+001
<STREAM> 2
<MEAN> 12
 5.946910e-001 -1.325096e-001 -1.012206e-001 -6.999922e-001 -2.453668e-001 1.955597e-001 -6.655270e-001 3.249869e-001 -1.955920e-001 -2.518215e-001 2.362638e-001 1.033546e-001
<VARIANCE> 12
 1.880513e+000 2.807220e+000 3.556762e+000 2.683349e+000 4.275242e+000 4.740223e+000 2.892756e+000 3.718689e+000 2.476743e+000 2.908328e+000 3.248655e+000 9.032288e-001
<GCONST> 3.440967e+001
<STREAM> 3
<MEAN> 2
 7.019418e-001 1.907242e-002
<VARIANCE> 2
 5.000000e-002 5.000000e-002
<GCONST> -2.315711e+000
<STATE> 3
<SWEIGHTS> 3
 1.000000e+000 1.000000e+000 1.000000e+000
<STREAM> 1
<MEAN> 12
 2.836077e+000 -9.933946e+000 -7.693204e+000 -7.716917e+000 -1.367353e+001 -4.473713e+000 -1.131288e+001 4.709826e+000 -1.292435e+000 -1.188586e+000 -9.693554e-001 -1.697487e+000
<VARIANCE> 12
 9.260199e+000 4.124239e+001 9.072794e+001 5.755188e+001 3.089665e+001 7.680702e+001 3.179099e+001 6.330891e+001 4.321201e+001 2.583130e+001 1.732705e+001 1.370693e+001
<GCONST> 6.442730e+001
<STREAM> 2
<MEAN> 12
 -3.677256e-001 -1.951607e-001 2.103927e-001 1.675662e-001 -1.854265e-001 2.027338e-001 6.463686e-001 -2.924642e-001 -1.671479e-001 2.681902e-001 2.535859e-002 -2.699808e-001
<VARIANCE> 12
 3.948518e-001 2.405402e+000 2.273463e+000 2.188553e+000 3.378740e+000 2.866227e+000 2.390121e+000 1.924110e+000 2.174453e+000 1.376364e+000 1.930492e+000 1.570219e+000
<GCONST> 2.960906e+001
<STREAM> 3
<MEAN> 2
 7.847994e-001 -2.058763e-004
<VARIANCE> 2
 5.000000e-002 5.000000e-002
<GCONST> -2.315711e+000
<STATE> 4
<SWEIGHTS> 3
 1.000000e+000 1.000000e+000 1.000000e+000
<STREAM> 1
<MEAN> 12
 -1.889232e+000 -5.153389e+000 -3.652730e+000 -8.912797e+000 -1.075352e+001 -3.212689e+000 -8.676326e+000 -1.960777e+000 -3.932096e+000 1.554271e+000 -2.653351e+000 -1.228706e+000
<VARIANCE> 12
 3.113771e+001 5.116022e+001 1.044566e+002 6.245450e+001 7.244090e+001 8.830135e+001 5.124513e+001 6.439031e+001 5.776453e+001 2.077012e+001 3.370568e+001 2.286942e+001
<GCONST> 6.881358e+001
<STREAM> 2
<MEAN> 12
 -1.842430e+000 7.016616e-002 9.921267e-001 1.032983e+000 3.966356e-001 -8.892673e-001 8.672394e-001 -6.118764e-002 1.450614e-001 1.211224e-001 -2.805541e-001 2.700913e-001
<VARIANCE> 12
 4.800673e+000 5.068785e+000 2.364115e+000 4.344150e+000 7.399198e+000 6.559069e+000 5.895868e+000 4.420502e+000 4.168306e+000 2.314386e+000 2.875464e+000 2.285844e+000
<GCONST> 3.886794e+001
<STREAM> 3
<MEAN> 2
 6.942987e-001 -2.774229e-002
<VARIANCE> 2
 5.000000e-002 5.000000e-002
<GCONST> -2.315711e+000
<TRANSP> 5
 0.000000e+000 1.000000e+000 0.000000e+000 0.000000e+000 0.000000e+000
 0.000000e+000 5.912483e-001 4.087517e-001 0.000000e+000 0.000000e+000
 0.000000e+000 0.000000e+000 5.591213e-001 4.408788e-001 0.000000e+000
 0.000000e+000 0.000000e+000 0.000000e+000 5.381799e-001 4.618201e-001
 0.000000e+000 0.000000e+000 0.000000e+000 0.000000e+000 0.000000e+000
<ENDHMM>
