~o
<STREAMINFO> 3 12 12 2
<VECSIZE> 26<NULLD><MFCC_E_D><DIAGC>
~h "N"
<BEGINHMM>
<NUMSTATES> 5
<STATE> 2
<SWEIGHTS> 3
 1.000000e+000 1.000000e+000 1.000000e+000
<STREAM> 1
<MEAN> 12
 -3.088733e+000 -5.734138e+000 3.179378e+000 -8.017195e-001 -1.160260e+001 1.172675e+000 -9.816495e+000 -6.362827e+000 -4.872131e+000 -2.286904e-001 -5.822269e+000 4.574364e-002
<VARIANCE> 12
 3.385734e+000 1.537003e+001 1.417235e+001 2.526474e+001 2.809105e+001 1.867377e+001 2.616948e+001 5.276112e+001 2.813759e+001 2.770396e+001 1.355359e+001 1.753890e+001
<GCONST> 5.750991e+001
<STREAM> 2
<MEAN> 12
 -3.143232e-002 6.253711e-001 1.463859e-001 1.088683e+000 1.105828e-002 7.628189e-001 -1.306594e-001 -2.303038e+000 -1.239491e+000 3.961630e-001 2.415646e-001 9.042315e-001
<VARIANCE> 12
 1.740529e+000 1.774517e+000 1.939819e+000 2.641171e+000 3.282837e+000 2.098301e+000 3.798945e+000 3.577685e+000 4.305978e+000 2.721457e+000 2.824478e+000 1.954605e+000
<GCONST> 3.352502e+001
<STREAM> 3
<MEAN> 2
 4.697345e-001 -2.073431e-002
<VARIANCE> 2
 5.000000e-002 5.000000e-002
<GCONST> -2.315711e+000
<STATE> 3
<SWEIGHTS> 3
 1.000000e+000 1.000000e+000 1.000000e+000
<STREAM> 1
<MEAN> 12
 -3.971995e+000 -2.767135e+000 2.281912e+000 -1.283621e+000 -1.197810e+001 1.384127e+000 -7.957679e+000 -8.464466e+000 -5.114537e+000 -1.442459e+000 -7.015550e+000 3.984128e+000
<VARIANCE> 12
 2.612321e+000 3.191416e+001 1.460876e+001 1.789078e+001 1.949837e+001 1.584026e+001 2.585480e+001 3.760630e+001 2.612565e+001 2.019097e+001 1.461566e+001 1.242155e+001
<GCONST> 5.612595e+001
<STREAM> 2
<MEAN> 12
 -3.742111e-001 3.867443e-001 -1.194588e+000 -1.002745e+000 6.527911e-001 -6.865726e-001 7.909347e-001 1.339961e+000 1.292660e+000 -1.245499e+000 2.474596e-001 6.296770e-002
<VARIANCE> 12
 2.143430e+000 2.885593e+000 2.287540e+000 4.026500e+000 3.937850e+000 2.314639e+000 2.252980e+000 4.584798e+000 1.481333e+000 1.156663e+000 1.804043e+000 1.822093e+000
<GCONST> 3.237042e+001
<STREAM> 3
<MEAN> 2
 4.300608e-001 5.516281e-003
<VARIANCE> 2
 5.000000e-002 5.000000e-002
<GCONST> -2.315711e+000
<STATE> 4
<SWEIGHTS> 3
 1.000000e+000 1.000000e+000 1.000000e+000
<STREAM> 1
<MEAN> 12
 -4.873214e+000 -4.969805e+000 -3.448649e+000 -6.508985e+000 -9.411829e+000 -8.987947e-001 -5.215926e+000 -2.059107e+000 -9.069486e-001 -3.953274e+000 -4.265923e+000 3.140137e-001
<VARIANCE> 12
 4.937846e+001 3.330355e+001 4.927273e+001 4.999759e+001 3.093263e+001 2.505511e+001 2.537167e+001 4.262358e+001 2.205064e+001 2.461978e+001 1.973515e+001 8.357227e+000
<GCONST> 6.231040e+001
<STREAM> 2
<MEAN> 12
 -5.430866e-001 -6.920819e-001 -2.616148e+000 -2.693806e+000 3.455320e-001 -1.545126e-001 6.309820e-001 1.675262e+000 2.329595e+000 -4.998181e-001 6.428338e-001 -1.160641e+000
<VARIANCE> 12
 7.417728e+000 2.558421e+000 4.106185e+000 2.046284e+000 5.521373e+000 4.486732e+000 2.410751e+000 5.211593e+000 3.379394e+000 1.099378e+000 3.002144e+000 1.986539e+000
<GCONST> 3.596505e+001
<STREAM> 3
<MEAN> 2
 5.118521e-001 4.900382e-002
<VARIANCE> 2
 5.000000e-002 5.000000e-002
<GCONST> -2.315711e+000
<TRANSP> 5
 0.000000e+000 1.000000e+000 0.000000e+000 0.000000e+000 0.000000e+000
 0.000000e+000 6.925176e-001 3.074823e-001 0.000000e+000 0.000000e+000
 0.000000e+000 0.000000e+000 5.146194e-001 4.853806e-001 0.000000e+000
 0.000000e+000 0.000000e+000 0.000000e+000 4.074197e-001 5.925803e-001
 0.000000e+000 0.000000e+000 0.000000e+000 0.000000e+000 0.000000e+000
<ENDHMM>
