~o
<STREAMINFO> 3 12 12 2
<VECSIZE> 26<NULLD><MFCC_E_D><DIAGC>
~h "S"
<BEGINHMM>
<NUMSTATES> 5
<STATE> 2
<SWEIGHTS> 3
 1.000000e+000 1.000000e+000 1.000000e+000
<STREAM> 1
<MEAN> 12
 -1.315610e+001 -6.934254e+000 -9.495300e+000 -9.694250e+000 -1.910287e+000 -1.724074e-001 -3.775295e+000 1.922302e+000 2.772982e+000 -1.177979e-001 -6.290584e+000 -3.203744e+000
<VARIANCE> 12
 2.862020e+001 3.228598e+001 1.914557e+001 3.225163e+001 2.336712e+001 3.972054e+001 2.819713e+001 2.340316e+001 1.327358e+001 1.256969e+001 2.677725e+001 5.855616e+001
<GCONST> 6.110880e+001
<STREAM> 2
<MEAN> 12
 1.050145e-001 -1.162324e-001 -4.380423e-001 2.836899e-001 2.145972e-001 1.049128e+000 2.195667e-002 -1.432812e-001 -4.153665e-001 1.252604e-001 1.230189e-001 1.344055e-001
<VARIANCE> 12
 3.512774e+000 2.048609e+000 1.401109e+000 2.293653e+000 1.679871e+000 3.165258e+000 2.260819e+000 3.184414e+000 9.130320e-001 1.472685e+000 2.697094e+000 3.156725e+000
<GCONST> 3.127826e+001
<STREAM> 3
<MEAN> 2
 1.681423e-001 -3.529337e-002
<VARIANCE> 2
 5.000000e-002 5.000000e-002
<GCONST> -2.315711e+000
<STATE> 3
<SWEIGHTS> 3
 1.000000e+000 1.000000e+000 1.000000e+000
<STREAM> 1
<MEAN> 12
 -1.655402e+001 -1.907819e+000 -7.337418e+000 -5.579719e+000 -2.785046e+000 1.439924e-002 -7.630887e-001 1.485964e+000 -1.328167e+000 -5.667720e-001 -1.802310e+000 -3.999857e-001
<VARIANCE> 12
 8.036266e+000 5.678323e+000 1.115626e+001 1.902061e+001 1.666295e+001 1.278584e+001 1.306752e+001 1.807479e+001 1.204156e+001 1.448808e+001 1.781728e+001 1.155621e+001
<GCONST> 5.254793e+001
<STREAM> 2
<MEAN> 12
 1.045910e-001 2.663185e-001 1.754430e-001 1.027658e-001 -3.339693e-001 9.618996e-002 3.424027e-002 -8.667745e-002 -1.339334e-001 -1.113845e-001 4.127155e-002 -9.294981e-002
<VARIANCE> 12
 4.879343e-001 5.393228e-001 9.112445e-001 1.410891e+000 1.199941e+000 1.121721e+000 1.291415e+000 1.957126e+000 1.359319e+000 1.442065e+000 1.823853e+000 1.401849e+000
<GCONST> 2.380694e+001
<STREAM> 3
<MEAN> 2
 -6.583032e-002 -3.674615e-003
<VARIANCE> 2
 5.000000e-002 5.000000e-002
<GCONST> -2.315711e+000
<STATE> 4
<SWEIGHTS> 3
 1.000000e+000 1.000000e+000 1.000000e+000
<STREAM> 1
<MEAN> 12
 -1.228575e+001 -2.500602e+000 -2.698434e+000 -1.005773e+001 -8.760509e+000 1.208756e+000 -2.135757e+000 1.613141e+000 -3.870455e+000 -2.148680e+000 -2.383363e+000 -2.077891e+000
<VARIANCE> 12
 4.307552e+001 2.505125e+001 5.715694e+001 2.595509e+001 4.177245e+001 3.644824e+001 2.871392e+001 3.818240e+001 3.951225e+001 1.981234e+001 1.379421e+001 2.141176e+001
<GCONST> 6.301956e+001
<STREAM> 2
<MEAN> 12
 4.991252e-001 -5.392820e-001 5.350585e-001 -7.512988e-001 -8.264086e-002 5.021057e-001 -8.204966e-001 -1.212224e-002 -3.869902e-001 -5.259578e-001 -1.900101e-001 -2.367112e-001
<VARIANCE> 12
 5.335338e+000 2.571809e+000 4.169052e+000 2.568311e+000 2.993739e+000 1.862879e+000 2.250434e+000 3.340530e+000 2.426182e+000 1.833176e+000 1.486133e+000 2.043151e+000
<GCONST> 3.338336e+001
<STREAM> 3
<MEAN> 2
 1.870936e-001 7.392696e-002
<VARIANCE> 2
 7.337429e-002 5.000000e-002
<GCONST> -1.932160e+000
<TRANSP> 5
 0.000000e+000 1.000000e+000 0.000000e+000 0.000000e+000 0.000000e+000
 0.000000e+000 6.418246e-001 3.581754e-001 0.000000e+000 0.000000e+000
 0.000000e+000 0.000000e+000 8.881576e-001 1.118424e-001 0.000000e+000
 0.000000e+000 0.000000e+000 0.000000e+000 6.879300e-001 3.120699e-001
 0.000000e+000 0.000000e+000 0.000000e+000 0.000000e+000 0.000000e+000
<ENDHMM>
