~o
<STREAMINFO> 3 12 12 2
<VECSIZE> 26<NULLD><MFCC_E_D><DIAGC>
~h "V"
<BEGINHMM>
<NUMSTATES> 5
<STATE> 2
<SWEIGHTS> 3
 1.000000e+000 1.000000e+000 1.000000e+000
<STREAM> 1
<MEAN> 12
 5.330179e-001 -7.964663e+000 -4.466899e+000 -1.294563e+001 -1.300785e+001 2.441786e+000 -1.185986e+001 -1.012129e+000 -3.499678e+000 6.779832e-001 -1.253623e+000 -3.382366e+000
<VARIANCE> 12
 1.737158e+001 3.286129e+001 1.247000e+002 4.677727e+001 5.600074e+001 1.040985e+002 5.358215e+001 3.405978e+001 4.283856e+001 3.497327e+001 2.348842e+001 2.382931e+001
<GCONST> 6.689245e+001
<STREAM> 2
<MEAN> 12
 4.965471e-001 -5.653565e-001 -3.868786e-002 -7.520657e-002 -4.094931e-001 3.124853e-001 -5.245890e-001 1.767148e-001 3.895495e-001 1.862493e-001 -1.631789e-001 -3.198656e-001
<VARIANCE> 12
 1.485123e+000 1.693029e+000 2.403661e+000 1.785195e+000 2.940890e+000 2.484487e+000 2.337844e+000 2.210183e+000 2.670683e+000 1.748467e+000 1.687018e+000 1.519885e+000
<GCONST> 3.054682e+001
<STREAM> 3
<MEAN> 2
 7.951801e-001 1.582616e-002
<VARIANCE> 2
 5.000000e-002 5.000000e-002
<GCONST> -2.315711e+000
<STATE> 3
<SWEIGHTS> 3
 1.000000e+000 1.000000e+000 1.000000e+000
<STREAM> 1
<MEAN> 12
 1.460679e+000 -1.499444e+001 -6.537013e+000 -8.896267e+000 -1.462790e+001 1.858751e+000 -8.443558e+000 4.357954e+000 7.954674e-001 -7.626300e-001 -6.757328e+000 -6.787462e+000
<VARIANCE> 12
 1.157045e+001 3.502827e+001 7.185733e+001 1.817677e+001 3.836265e+001 5.880910e+001 3.136750e+001 3.459921e+001 3.857187e+001 2.012246e+001 2.722276e+001 2.368419e+001
<GCONST> 6.306816e+001
<STREAM> 2
<MEAN> 12
 -3.574426e-001 3.738055e-001 8.488690e-001 2.312693e-001 -1.843308e-001 -8.306503e-001 4.480813e-001 3.592505e-001 -2.522099e-001 9.111886e-003 -1.910807e-001 5.005830e-001
<VARIANCE> 12
 6.669400e-001 2.024102e+000 2.900310e+000 1.733263e+000 2.402862e+000 2.798288e+000 2.225395e+000 2.537208e+000 1.852074e+000 1.645674e+000 1.944086e+000 2.004607e+000
<GCONST> 3.008078e+001
<STREAM> 3
<MEAN> 2
 8.449969e-001 -1.547509e-002
<VARIANCE> 2
 5.000000e-002 5.000000e-002
<GCONST> -2.315711e+000
<STATE> 4
<SWEIGHTS> 3
 1.000000e+000 1.000000e+000 1.000000e+000
<STREAM> 1
<MEAN> 12
 -5.362616e+000 -5.263815e+000 2.261423e+000 -7.960431e+000 -1.237642e+001 -4.637473e+000 -5.515244e+000 1.023546e+000 -3.349909e+000 -3.883739e-002 -3.950307e+000 -1.043891e+000
<VARIANCE> 12
 3.743663e+001 3.719114e+001 6.079331e+001 3.609895e+001 6.791692e+001 5.088791e+001 4.725252e+001 4.080145e+001 4.701460e+001 3.637011e+001 2.649542e+001 1.812570e+001
<GCONST> 6.631763e+001
<STREAM> 2
<MEAN> 12
 -2.244710e+000 1.826567e+000 -8.708573e-001 1.028354e+000 2.381270e+000 4.317593e-002 1.350648e+000 -1.194829e+000 3.044803e-001 2.202134e-002 2.260606e-001 2.694050e-001
<VARIANCE> 12
 4.884207e+000 3.215078e+000 5.280723e+000 3.826897e+000 5.593132e+000 4.397852e+000 5.022409e+000 3.855687e+000 6.055180e+000 3.256909e+000 2.471841e+000 1.742444e+000
<GCONST> 3.842256e+001
<STREAM> 3
<MEAN> 2
 6.197810e-001 -7.311392e-002
<VARIANCE> 2
 5.000000e-002 5.000000e-002
<GCONST> -2.315711e+000
<TRANSP> 5
 0.000000e+000 1.000000e+000 0.000000e+000 0.000000e+000 0.000000e+000
 0.000000e+000 7.321316e-001 2.678684e-001 0.000000e+000 0.000000e+000
 0.000000e+000 0.000000e+000 7.185746e-001 2.814254e-001 0.000000e+000
 0.000000e+000 0.000000e+000 0.000000e+000 6.190870e-001 3.809130e-001
 0.000000e+000 0.000000e+000 0.000000e+000 0.000000e+000 0.000000e+000
<ENDHMM>
