~o
<STREAMINFO> 3 12 12 2
<VECSIZE> 26<NULLD><MFCC_E_D><DIAGC>
~h "N"
<BEGINHMM>
<NUMSTATES> 5
<STATE> 2
<SWEIGHTS> 3
 1.000000e+000 1.000000e+000 1.000000e+000
<STREAM> 1
<MEAN> 12
 -3.084116e+000 -5.774346e+000 3.201287e+000 -7.999324e-001 -1.159772e+001 1.192106e+000 -9.859351e+000 -6.297814e+000 -4.863788e+000 -3.132178e-001 -5.821283e+000 4.141160e-002
<VARIANCE> 12
 3.376224e+000 1.535502e+001 1.415988e+001 2.534108e+001 2.823644e+001 1.926218e+001 2.626197e+001 5.285860e+001 2.823023e+001 2.757769e+001 1.376516e+001 1.754283e+001
<GCONST> 5.756426e+001
<STREAM> 2
<MEAN> 12
 -3.462546e-002 6.175495e-001 1.481931e-001 1.108236e+000 1.230465e-002 7.648613e-001 -1.248587e-001 -2.309635e+000 -1.249974e+000 3.922064e-001 2.332124e-001 9.159306e-001
<VARIANCE> 12
 1.746894e+000 1.792173e+000 1.936922e+000 2.645687e+000 3.324870e+000 2.087436e+000 3.857654e+000 3.570296e+000 4.275734e+000 2.742915e+000 2.851103e+000 1.963937e+000
<GCONST> 3.357453e+001
<STREAM> 3
<MEAN> 2
 4.697403e-001 -2.088293e-002
<VARIANCE> 2
 1.000000e-002 1.000000e-002
<GCONST> -5.534586e+000
<STATE> 3
<SWEIGHTS> 3
 1.000000e+000 1.000000e+000 1.000000e+000
<STREAM> 1
<MEAN> 12
 -3.904511e+000 -3.198472e+000 2.403259e+000 -1.129978e+000 -1.189292e+001 1.312968e+000 -7.815717e+000 -8.544507e+000 -5.204221e+000 -1.472553e+000 -7.330842e+000 3.977338e+000
<VARIANCE> 12
 2.545111e+000 3.235878e+001 1.354234e+001 1.896713e+001 1.950327e+001 1.553932e+001 2.687305e+001 3.758331e+001 2.531183e+001 2.261325e+001 1.516572e+001 1.242772e+001
<GCONST> 5.623453e+001
<STREAM> 2
<MEAN> 12
 -3.906983e-001 5.416948e-001 -1.157705e+000 -1.209107e+000 6.048223e-001 -6.117654e-001 8.283567e-001 1.367473e+000 1.318261e+000 -1.244598e+000 3.116676e-001 9.601294e-002
<VARIANCE> 12
 2.277418e+000 2.419277e+000 2.214655e+000 3.677406e+000 3.641898e+000 2.505067e+000 2.273336e+000 4.468790e+000 1.463054e+000 1.153469e+000 1.909886e+000 1.690542e+000
<GCONST> 3.208292e+001
<STREAM> 3
<MEAN> 2
 4.357010e-001 4.859905e-003
<VARIANCE> 2
 1.000000e-002 1.000000e-002
<GCONST> -5.534586e+000
<STATE> 4
<SWEIGHTS> 3
 1.000000e+000 1.000000e+000 1.000000e+000
<STREAM> 1
<MEAN> 12
 -4.963441e+000 -4.369182e+000 -3.638051e+000 -6.699743e+000 -9.524833e+000 -8.495390e-001 -5.309373e+000 -2.083546e+000 -8.129451e-001 -3.752186e+000 -3.880829e+000 3.254019e-001
<VARIANCE> 12
 4.928988e+001 3.437424e+001 4.830040e+001 4.648361e+001 3.120954e+001 2.452495e+001 2.412282e+001 4.226108e+001 2.205208e+001 2.326403e+001 1.626410e+001 8.387040e+000
<GCONST> 6.192949e+001
<STREAM> 2
<MEAN> 12
 -5.163373e-001 -8.661123e-001 -2.662965e+000 -2.476517e+000 4.009065e-001 -2.479554e-001 5.728622e-001 1.649553e+000 2.315167e+000 -4.911116e-001 5.804424e-001 -1.222487e+000
<VARIANCE> 12
 7.253625e+000 2.664890e+000 4.056535e+000 2.945515e+000 5.833045e+000 4.349903e+000 2.272769e+000 5.306715e+000 3.398602e+000 1.079537e+000 2.862965e+000 1.935794e+000
<GCONST> 3.623274e+001
<STREAM> 3
<MEAN> 2
 5.050020e-001 5.005846e-002
<VARIANCE> 2
 2.869630e-002 1.000000e-002
<GCONST> -4.480403e+000
<TRANSP> 5
 0.000000e+000 1.000000e+000 0.000000e+000 0.000000e+000 0.000000e+000
 0.000000e+000 6.923077e-001 3.076923e-001 0.000000e+000 0.000000e+000
 0.000000e+000 0.000000e+000 5.151515e-001 4.848485e-001 0.000000e+000
 0.000000e+000 0.000000e+000 0.000000e+000 4.074074e-001 5.925926e-001
 0.000000e+000 0.000000e+000 0.000000e+000 0.000000e+000 0.000000e+000
<ENDHMM>
