~o
<STREAMINFO> 3 12 12 2
<VECSIZE> 26<NULLD><MFCC_E_D><DIAGC>
~h "S"
<BEGINHMM>
<NUMSTATES> 5
<STATE> 2
<SWEIGHTS> 3
 1.000000e+000 1.000000e+000 1.000000e+000
<STREAM> 1
<MEAN> 12
 -1.383485e+001 -4.976659e+000 -9.043140e+000 -8.776996e+000 -1.704183e+000 -1.778535e+000 -2.705832e+000 1.470271e+000 1.488029e+000 -4.668281e-001 -5.587890e+000 -1.620714e+000
<VARIANCE> 12
 2.690814e+001 1.478785e+001 1.698456e+001 2.593738e+001 2.487734e+001 2.527304e+001 2.320989e+001 2.051476e+001 1.275702e+001 1.055727e+001 2.361775e+001 5.142018e+001
<GCONST> 5.874310e+001
<STREAM> 2
<MEAN> 12
 -4.754859e-002 4.358230e-002 -3.814668e-001 4.802283e-001 4.603182e-002 1.211401e+000 -1.125601e-001 -3.779626e-001 -5.484444e-001 3.872888e-002 1.309785e-001 -1.769506e-001
<VARIANCE> 12
 2.842307e+000 1.338056e+000 1.082552e+000 2.353417e+000 1.912106e+000 2.719269e+000 1.844419e+000 3.045482e+000 8.086911e-001 1.150527e+000 2.680046e+000 2.811013e+000
<GCONST> 2.964720e+001
<STREAM> 3
<MEAN> 2
 1.437509e-001 -4.477295e-002
<VARIANCE> 2
 2.868533e-002 1.000000e-002
<GCONST> -4.480785e+000
<STATE> 3
<SWEIGHTS> 3
 1.000000e+000 1.000000e+000 1.000000e+000
<STREAM> 1
<MEAN> 12
 -1.671031e+001 -1.815261e+000 -7.134048e+000 -5.332903e+000 -3.110151e+000 1.847058e-001 -8.103685e-001 1.392777e+000 -1.290081e+000 -5.348894e-001 -1.498395e+000 -4.899578e-001
<VARIANCE> 12
 6.711286e+000 6.690198e+000 1.059262e+001 1.803819e+001 1.623392e+001 1.295103e+001 1.484050e+001 1.851673e+001 1.254150e+001 1.547352e+001 1.778300e+001 1.160713e+001
<GCONST> 5.267396e+001
<STREAM> 2
<MEAN> 12
 8.594972e-002 2.111582e-001 1.528493e-001 -6.927017e-003 -2.979281e-001 2.390394e-002 5.082880e-002 -2.316256e-002 -5.681011e-002 -8.887493e-002 4.010478e-002 -2.444881e-002
<VARIANCE> 12
 4.471266e-001 5.941945e-001 9.355248e-001 1.281176e+000 1.199881e+000 1.081114e+000 1.338675e+000 1.925394e+000 1.309347e+000 1.568903e+000 1.850823e+000 1.398724e+000
<GCONST> 2.378831e+001
<STREAM> 3
<MEAN> 2
 -8.297081e-002 -2.076464e-003
<VARIANCE> 2
 1.073845e-002 1.000000e-002
<GCONST> -5.463340e+000
<STATE> 4
<SWEIGHTS> 3
 1.000000e+000 1.000000e+000 1.000000e+000
<STREAM> 1
<MEAN> 12
 -1.194106e+001 -3.996316e+000 -3.805767e+000 -1.075460e+001 -7.725782e+000 2.120156e+000 -2.609599e+000 2.187106e+000 -2.939585e+000 -1.820662e+000 -3.329406e+000 -2.889205e+000
<VARIANCE> 12
 4.127509e+001 4.210017e+001 6.419318e+001 2.821551e+001 4.645281e+001 3.863097e+001 2.858929e+001 3.719587e+001 4.614665e+001 1.978203e+001 1.757372e+001 2.439608e+001
<GCONST> 6.435574e+001
<STREAM> 2
<MEAN> 12
 6.438573e-001 -4.495059e-001 5.566753e-001 -6.026410e-001 -8.502847e-002 4.251374e-001 -6.693499e-001 3.930191e-002 -4.119689e-001 -4.873813e-001 -1.809644e-001 -1.336209e-001
<VARIANCE> 12
 5.206977e+000 2.921713e+000 4.077347e+000 2.703292e+000 2.708522e+000 1.795997e+000 2.500186e+000 3.234167e+000 2.461359e+000 1.815869e+000 1.395402e+000 2.204358e+000
<GCONST> 3.346961e+001
<STREAM> 3
<MEAN> 2
 2.100020e-001 7.428712e-002
<VARIANCE> 2
 6.929990e-002 1.000000e-002
<GCONST> -3.598728e+000
<TRANSP> 5
 0.000000e+000 1.000000e+000 0.000000e+000 0.000000e+000 0.000000e+000
 0.000000e+000 6.734694e-001 3.265306e-001 0.000000e+000 0.000000e+000
 0.000000e+000 0.000000e+000 8.805970e-001 1.194030e-001 0.000000e+000
 0.000000e+000 0.000000e+000 0.000000e+000 7.142857e-001 2.857143e-001
 0.000000e+000 0.000000e+000 0.000000e+000 0.000000e+000 0.000000e+000
<ENDHMM>
