~o
<STREAMINFO> 3 12 12 2
<VECSIZE> 26<NULLD><MFCC_E_D><DIAGC>
~h "V"
<BEGINHMM>
<NUMSTATES> 5
<STATE> 2
<SWEIGHTS> 3
 1.000000e+000 1.000000e+000 1.000000e+000
<STREAM> 1
<MEAN> 12
 5.289332e-001 -8.100727e+000 -4.283133e+000 -1.291715e+001 -1.319254e+001 2.382013e+000 -1.178241e+001 -1.060726e+000 -3.512919e+000 8.774633e-001 -1.295436e+000 -3.529012e+000
<VARIANCE> 12
 1.737189e+001 3.305225e+001 1.256645e+002 4.684319e+001 5.614876e+001 1.047635e+002 5.358356e+001 3.331782e+001 4.426960e+001 3.398802e+001 2.383267e+001 2.532559e+001
<GCONST> 6.697411e+001
<STREAM> 2
<MEAN> 12
 5.137921e-001 -5.848839e-001 -6.620413e-002 -9.348564e-002 -4.237737e-001 3.711821e-001 -5.236993e-001 2.249199e-001 3.503911e-001 1.681264e-001 -1.780483e-001 -3.216990e-001
<VARIANCE> 12
 1.440597e+000 1.700203e+000 2.305447e+000 1.769097e+000 2.903163e+000 2.370805e+000 2.298165e+000 2.077281e+000 2.566434e+000 1.755058e+000 1.652057e+000 1.581678e+000
<GCONST> 3.031380e+001
<STREAM> 3
<MEAN> 2
 7.975477e-001 1.635115e-002
<VARIANCE> 2
 1.299620e-002 1.000000e-002
<GCONST> -5.272515e+000
<STATE> 3
<SWEIGHTS> 3
 1.000000e+000 1.000000e+000 1.000000e+000
<STREAM> 1
<MEAN> 12
 1.399918e+000 -1.484184e+001 -6.490230e+000 -8.918731e+000 -1.455984e+001 1.698610e+000 -8.473542e+000 4.481647e+000 6.906850e-001 -8.732806e-001 -6.716586e+000 -6.554895e+000
<VARIANCE> 12
 1.152510e+001 3.622554e+001 7.139577e+001 1.755926e+001 3.851470e+001 5.918654e+001 3.235697e+001 3.399163e+001 3.881528e+001 2.118391e+001 2.750620e+001 2.309939e+001
<GCONST> 6.312358e+001
<STREAM> 2
<MEAN> 12
 -3.879867e-001 4.386553e-001 8.694999e-001 2.394588e-001 -1.276597e-001 -9.105120e-001 4.545654e-001 2.676768e-001 -2.160955e-001 6.323868e-002 -1.751397e-001 5.170645e-001
<VARIANCE> 12
 6.612135e-001 1.984577e+000 2.980729e+000 1.786544e+000 2.498937e+000 2.721836e+000 2.271636e+000 2.767425e+000 2.004332e+000 1.775455e+000 1.977481e+000 1.940493e+000
<GCONST> 3.036842e+001
<STREAM> 3
<MEAN> 2
 8.419684e-001 -1.662839e-002
<VARIANCE> 2
 1.666013e-002 1.000000e-002
<GCONST> -5.024153e+000
<STATE> 4
<SWEIGHTS> 3
 1.000000e+000 1.000000e+000 1.000000e+000
<STREAM> 1
<MEAN> 12
 -5.511600e+000 -5.037577e+000 2.215810e+000 -7.861517e+000 -1.214170e+001 -4.576877e+000 -5.414907e+000 8.916924e-001 -3.259422e+000 -1.781139e-001 -3.940091e+000 -1.000577e+000
<VARIANCE> 12
 3.805185e+001 3.635051e+001 6.108884e+001 3.691819e+001 6.814503e+001 5.066834e+001 4.633210e+001 4.121313e+001 4.564182e+001 3.590320e+001 2.598843e+001 1.843169e+001
<GCONST> 6.628262e+001
<STREAM> 2
<MEAN> 12
 -2.314113e+000 1.835597e+000 -9.080844e-001 1.079808e+000 2.423233e+000 8.144625e-002 1.392077e+000 -1.191974e+000 3.209093e-001 -3.074698e-002 2.408687e-001 2.549060e-001
<VARIANCE> 12
 4.912889e+000 3.288002e+000 5.305736e+000 3.773801e+000 5.640665e+000 4.464944e+000 5.059399e+000 3.892914e+000 6.194972e+000 3.124333e+000 2.495779e+000 1.718309e+000
<GCONST> 3.845910e+001
<STREAM> 3
<MEAN> 2
 6.129322e-001 -7.501199e-002
<VARIANCE> 2
 3.386825e-002 1.000000e-002
<GCONST> -4.314693e+000
<TRANSP> 5
 0.000000e+000 1.000000e+000 0.000000e+000 0.000000e+000 0.000000e+000
 0.000000e+000 7.354085e-001 2.645914e-001 0.000000e+000 0.000000e+000
 0.000000e+000 0.000000e+000 7.224490e-001 2.775510e-001 0.000000e+000
 0.000000e+000 0.000000e+000 0.000000e+000 6.046512e-001 3.953488e-001
 0.000000e+000 0.000000e+000 0.000000e+000 0.000000e+000 0.000000e+000
<ENDHMM>
